<?xml version="1.0"?>
<opencv_storage>
<cascade>
  <stageType>BOOST</stageType>
  <featureType>HAAR</featureType>
  <height>100</height>
  <width>100</width>
  <stageParams>
    <boostType>GAB</boostType>
    <minHitRate>9.9500000476837158e-01</minHitRate>
    <maxFalseAlarm>5.0000000000000000e-01</maxFalseAlarm>
    <weightTrimRate>9.4999999999999996e-01</weightTrimRate>
    <maxDepth>1</maxDepth>
    <maxWeakCount>100</maxWeakCount></stageParams>
  <featureParams>
    <maxCatCount>0</maxCatCount>
    <featSize>1</featSize>
    <mode>BASIC</mode></featureParams>
  <stageNum>4</stageNum>
  <stages>
    <!-- stage 0 -->
    <_>
      <maxWeakCount>2</maxWeakCount>
      <stageThreshold>-2.0747780799865723e-01</stageThreshold>
      <weakClassifiers>
        <_>
          <internalNodes>
            0 -1 3 -8.3035584539175034e-03</internalNodes>
          <leafValues>
            7.7777779102325439e-01 -9.9401199817657471e-01</leafValues></_>
        <_>
          <internalNodes>
            0 -1 4 1.5981961041688919e-03</internalNodes>
          <leafValues>
            -9.8525559902191162e-01 8.4840482473373413e-01</leafValues></_></weakClassifiers></_>
    <!-- stage 1 -->
    <_>
      <maxWeakCount>2</maxWeakCount>
      <stageThreshold>-5.0368553400039673e-01</stageThreshold>
      <weakClassifiers>
        <_>
          <internalNodes>
            0 -1 2 1.1558964848518372e-01</internalNodes>
          <leafValues>
            -9.9203187227249146e-01 1.</leafValues></_>
        <_>
          <internalNodes>
            0 -1 5 -5.6682317517697811e-04</internalNodes>
          <leafValues>
            4.8834633827209473e-01 -1.</leafValues></_></weakClassifiers></_>
    <!-- stage 2 -->
    <_>
      <maxWeakCount>2</maxWeakCount>
      <stageThreshold>-2.0549893379211426e-01</stageThreshold>
      <weakClassifiers>
        <_>
          <internalNodes>
            0 -1 0 -2.4855631589889526e-01</internalNodes>
          <leafValues>
            8.0000001192092896e-01 -9.9600398540496826e-01</leafValues></_>
        <_>
          <internalNodes>
            0 -1 1 3.3990680240094662e-03</internalNodes>
          <leafValues>
            -9.8316287994384766e-01 7.9050505161285400e-01</leafValues></_></weakClassifiers></_>
    <!-- stage 3 -->
    <_>
      <maxWeakCount>2</maxWeakCount>
      <stageThreshold>-1.8794448673725128e-01</stageThreshold>
      <weakClassifiers>
        <_>
          <internalNodes>
            0 -1 7 -3.9513390511274338e-02</internalNodes>
          <leafValues>
            8.0000001192092896e-01 -9.9600398540496826e-01</leafValues></_>
        <_>
          <internalNodes>
            0 -1 6 1.0700777638703585e-03</internalNodes>
          <leafValues>
            -9.8794448375701904e-01 8.1418341398239136e-01</leafValues></_></weakClassifiers></_></stages>
  <features>
    <_>
      <rects>
        <_>
          0 0 70 82 -1.</_>
        <_>
          0 0 35 41 2.</_>
        <_>
          35 41 35 41 2.</_></rects>
      <tilted>0</tilted></_>
    <_>
      <rects>
        <_>
          20 0 2 88 -1.</_>
        <_>
          20 0 1 44 2.</_>
        <_>
          21 44 1 44 2.</_></rects>
      <tilted>0</tilted></_>
    <_>
      <rects>
        <_>
          21 12 27 73 -1.</_>
        <_>
          30 12 9 73 3.</_></rects>
      <tilted>0</tilted></_>
    <_>
      <rects>
        <_>
          28 93 34 2 -1.</_>
        <_>
          45 93 17 2 2.</_></rects>
      <tilted>0</tilted></_>
    <_>
      <rects>
        <_>
          43 46 4 10 -1.</_>
        <_>
          43 46 2 5 2.</_>
        <_>
          45 51 2 5 2.</_></rects>
      <tilted>0</tilted></_>
    <_>
      <rects>
        <_>
          52 55 4 4 -1.</_>
        <_>
          52 55 2 2 2.</_>
        <_>
          54 57 2 2 2.</_></rects>
      <tilted>0</tilted></_>
    <_>
      <rects>
        <_>
          63 90 10 6 -1.</_>
        <_>
          63 90 5 3 2.</_>
        <_>
          68 93 5 3 2.</_></rects>
      <tilted>0</tilted></_>
    <_>
      <rects>
        <_>
          82 20 18 46 -1.</_>
        <_>
          82 43 18 23 2.</_></rects>
      <tilted>0</tilted></_></features></cascade>
</opencv_storage>
